{
  "input_nodes": 5,
  "hidden_nodes": 8,
  "output_nodes": 2,
  "weights_ih": {
    "rows": 8,
    "cols": 5,
    "data": [
      [
        -0.1822881994412312, 0.4433162646335397, 0.5306496706585881,
        0.09955988442527047, -0.26212281834150086
      ],
      [
        0.7752566954673925, -0.9096707493275389, -0.6222900864394705,
        -0.19641930706349478, 1.022008989427252
      ],
      [
        0.9396037798833284, 0.32511417734649695, 0.19200003427879853,
        -0.20616385373857862, 1.041403325801976
      ],
      [
        -0.6519018250825468, -0.8695549617694757, -0.5901733624180636,
        -0.7923667811539931, -0.8411754554539341
      ],
      [
        0.3299423182824807, -0.5882979399563719, 0.38883301544739246,
        1.0772915376355126, -0.5624643403801755
      ],
      [
        0.8460939841752804, -0.11522167864749601, -0.730645471887495,
        0.6659905022523196, -0.597179770791574
      ],
      [
        -0.41216429558990875, 0.364455923837956, 0.8005176955160263,
        0.18487186697673552, -0.3490696299142916
      ],
      [
        -0.9386154689597296, 0.5040127812550317, -0.44118729912904486,
        0.22395370764169065, 0.3449391447520291
      ]
    ]
  },
  "weights_ho": {
    "rows": 2,
    "cols": 8,
    "data": [
      [
        -0.87424335264426, 0.3100753488799955, -0.31805041339914997,
        0.5084766187566153, 0.3525724690734671, -0.6851018420376971,
        -0.13543919012531047, -0.6024535545899762
      ],
      [
        -0.15326976583518037, -0.11161068612729781, -0.447642958399209,
        -0.05641065705447931, -0.19556826126812465, -0.6302222173188522,
        0.4756877235874799, 0.16122656932941593
      ]
    ]
  },
  "bias_h": {
    "rows": 8,
    "cols": 1,
    "data": [
      [0.0841092245937598],
      [-0.055791132323885745],
      [-0.07365136007455152],
      [0.9254024987871828],
      [-0.12326565306887788],
      [-0.3882656655983849],
      [0.23299351751916633],
      [-0.8900013014088617]
    ]
  },
  "bias_o": {
    "rows": 2,
    "cols": 1,
    "data": [[-0.13326411390563164], [-0.26047939220028926]]
  },
  "learning_rate": 0.1,
  "activation_function": {}
}
