{
  "input_nodes": 5,
  "hidden_nodes": 8,
  "output_nodes": 2,
  "weights_ih": {
    "rows": 8,
    "cols": 5,
    "data": [
      [
        0.41401754222067344,
        -1.0157741008483647,
        0.21179135148511444,
        -0.1328304367659232,
        -0.8537478889879493
      ],
      [
        -0.9823236718477317,
        0.06655062689147426,
        0.2987805279764275,
        -0.799720024726538,
        -0.026496313156358454
      ],
      [
        0.5027019489706931,
        -0.8731199928786619,
        -0.12339637549687714,
        -0.11658807259758838,
        0.017727149844748352
      ],
      [
        0.21530872938077333,
        0.25219095745245357,
        -0.1157769200849893,
        0.3696607990313452,
        -0.0784733659271357
      ],
      [
        -0.5414340931911186,
        0.829701932925093,
        0.5288238122424106,
        -0.7278665735996604,
        0.7490598289356587
      ],
      [
        -0.21574228370131615,
        -0.10810222312480638,
        -0.19747817344199028,
        0.6073747878031726,
        -0.9962945113761124
      ],
      [
        -0.2976585439130992,
        0.09041829598492779,
        0.9614188802314247,
        -0.1983128550260877,
        -0.051377967436997185
      ],
      [
        -0.9581346054523873,
        0.3008530493032735,
        -0.44268648466935673,
        0.3813725288401684,
        -0.6219704267042325
      ]
    ]
  },
  "weights_ho": {
    "rows": 2,
    "cols": 8,
    "data": [
      [
        0.3957998465983279,
        0.0021803622417277957,
        0.7239737817269976,
        0.7718494800464906,
        0.11436403383745386,
        -0.08832450784693657,
        0.21101373457735959,
        -0.6819589370586897
      ],
      [
        -0.19829702126448284,
        -0.5571367603467192,
        -0.6319440083142929,
        -0.5461663899945468,
        -0.3456897078614345,
        -0.9436728332433401,
        0.7631785315821326,
        0.9496062792024995
      ]
    ]
  },
  "bias_h": {
    "rows": 8,
    "cols": 1,
    "data": [
      [
        0.2943984298346509
      ],
      [
        -0.5996506646580015
      ],
      [
        0.29270314128530356
      ],
      [
        -0.24725206810125328
      ],
      [
        0.7219680017882311
      ],
      [
        0.6011375243872072
      ],
      [
        0.7106779611168605
      ],
      [
        0.8500274904762011
      ]
    ]
  },
  "bias_o": {
    "rows": 2,
    "cols": 1,
    "data": [
      [
        -0.5947372596008007
      ],
      [
        0.7772835228454463
      ]
    ]
  },
  "learning_rate": 0.1,
  "activation_function": {}
}
