{
  "input_nodes": 5,
  "hidden_nodes": 8,
  "output_nodes": 2,
  "weights_ih": {
    "rows": 8,
    "cols": 5,
    "data": [
      [
        0.8554614500451199,
        0.6315577039249036,
        -0.49902772436084836,
        0.8358216318769496,
        -0.7957155863577245
      ],
      [
        -0.022119145273189922,
        -0.7933868429759996,
        -0.06969021232668515,
        -0.5071990096708777,
        -0.5897259714341118
      ],
      [
        -0.7397735797913776,
        0.8324485803823543,
        -0.9731826810389452,
        0.8971580509548145,
        -0.40707931470014586
      ],
      [
        0.4154589286587238,
        -0.37552173979649783,
        0.6706422882558244,
        -0.11151078871006789,
        -0.6067755836021922
      ],
      [
        -0.7258917604818667,
        -0.5869946129477763,
        -0.11523237215899984,
        0.023163742772934537,
        0.6069484675015916
      ],
      [
        -0.15873021984080182,
        0.7180485059285432,
        -0.6691656975869305,
        -0.2468379357830659,
        0.8247698877728498
      ],
      [
        0.21679518632577557,
        0.7915257291544835,
        -0.9156586123137171,
        -1.1115387613875662,
        0.8960061045631154
      ],
      [
        0.8262393754508222,
        0.043465523872093126,
        0.8770753406798546,
        0.6548654195171024,
        -0.34351766894841695
      ]
    ]
  },
  "weights_ho": {
    "rows": 2,
    "cols": 8,
    "data": [
      [
        0.060737807899499924,
        -0.48168650160469284,
        -0.9423961288639563,
        0.7265546194472403,
        -0.010838015323623829,
        -0.0726817056368354,
        0.1883670242493256,
        -0.14904200820292646
      ],
      [
        -0.8734765306515793,
        0.6680997995197222,
        0.7611545986243542,
        0.8050844257891314,
        0.1972121292794462,
        -0.7706066636028002,
        0.7416413673659785,
        -0.875053930749317
      ]
    ]
  },
  "bias_h": {
    "rows": 8,
    "cols": 1,
    "data": [
      [
        0.6212463663734069
      ],
      [
        0.3033021452493099
      ],
      [
        0.4458869524142599
      ],
      [
        -0.21450757662744957
      ],
      [
        0.4693889202945473
      ],
      [
        -0.055218260175231126
      ],
      [
        -0.5115789082920319
      ],
      [
        0.23559352307284387
      ]
    ]
  },
  "bias_o": {
    "rows": 2,
    "cols": 1,
    "data": [
      [
        -0.2348876575195944
      ],
      [
        -0.3358097869911689
      ]
    ]
  },
  "learning_rate": 0.1,
  "activation_function": {}
}
