{
  "input_nodes": 5,
  "hidden_nodes": 8,
  "output_nodes": 2,
  "weights_ih": {
    "rows": 8,
    "cols": 5,
    "data": [
      [
        0.3159728286781155,
        0.9748884106257933,
        -0.6037638610206378,
        -0.04814162471330623,
        0.9005874451108284
      ],
      [
        -0.787910098692663,
        0.698338195186238,
        0.4820848297103346,
        -0.7752538694450068,
        -0.7590204436832519
      ],
      [
        0.613657778511294,
        -0.9473946637210564,
        -0.9717982178625242,
        0.7232131600726366,
        -0.3999453383833034
      ],
      [
        0.026587405262258917,
        0.2384122508705342,
        0.3622380502526248,
        -0.2257720274346679,
        -0.3896265256666813
      ],
      [
        -0.508079122219361,
        0.5821118006573509,
        -0.716554244010132,
        0.9069620147829409,
        -0.31587483906992286
      ],
      [
        -0.6783581498681373,
        0.8487297417734467,
        0.7383022307400469,
        0.8015263052910258,
        0.21008671745815688
      ],
      [
        0.5979337168173557,
        -0.04676974980691117,
        -0.05774910716560232,
        0.21036524237427168,
        0.5071851126983227
      ],
      [
        -1.0068044514743508,
        0.5045333950208186,
        0.3260449049955356,
        -0.7357987566805373,
        -0.16810769570254996
      ]
    ]
  },
  "weights_ho": {
    "rows": 2,
    "cols": 8,
    "data": [
      [
        0.07736149464091416,
        -0.5153416253442762,
        -0.7187006263223221,
        0.4309682128822975,
        -0.9697390611225867,
        -0.2340080386719317,
        0.6932743413845635,
        -0.8372696977823544
      ],
      [
        0.16939717635376583,
        -0.4450918116236815,
        -0.33620565029881183,
        0.6640477231351366,
        0.4499552851171651,
        -0.12382577353089808,
        0.3022807751656633,
        0.3446904302315654
      ]
    ]
  },
  "bias_h": {
    "rows": 8,
    "cols": 1,
    "data": [
      [
        0.8143239806144975
      ],
      [
        -1.212454390789784
      ],
      [
        1.0288625395184976
      ],
      [
        0.47424202654721986
      ],
      [
        -0.7959490766333532
      ],
      [
        0.1728376555804269
      ],
      [
        0.9502602426150824
      ],
      [
        0.06340446063200317
      ]
    ]
  },
  "bias_o": {
    "rows": 2,
    "cols": 1,
    "data": [
      [
        0.5721004707515047
      ],
      [
        -0.47841202539936256
      ]
    ]
  },
  "learning_rate": 0.1,
  "activation_function": {}
}
