{
  "input_nodes": 5,
  "hidden_nodes": 8,
  "output_nodes": 2,
  "weights_ih": {
    "rows": 8,
    "cols": 5,
    "data": [
      [
        -0.9599640302131411,
        1.1133297809819063,
        0.33699373711649105,
        -0.7006334021012103,
        0.530127123567687
      ],
      [
        0.4887847652394274,
        -0.106885555445424,
        -0.22296521569990044,
        0.4176481530977962,
        0.4843193780065082
      ],
      [
        0.007791389719899927,
        -0.1671002345290602,
        0.3545171304594198,
        0.2719758812550061,
        0.34295748022818007
      ],
      [
        0.567536393445595,
        -0.7549503639601465,
        -0.8436167394084235,
        -0.25241802054094853,
        0.12327215683398543
      ],
      [
        0.33969187221961067,
        -0.465128757480874,
        0.4509784593108922,
        0.640134180474537,
        -0.33149203229441526
      ],
      [
        -0.04497486591211734,
        -0.9650926473359576,
        0.4491986432286381,
        0.685693605917538,
        -0.4276471203662172
      ],
      [
        0.12134701937480466,
        -0.43662280301161127,
        0.6002037222427902,
        0.6316514320915617,
        0.456950654593375
      ],
      [
        0.5621005589937342,
        -0.38539597997652125,
        -0.34802523206537667,
        -0.7981957956587218,
        0.877977268808363
      ]
    ]
  },
  "weights_ho": {
    "rows": 2,
    "cols": 8,
    "data": [
      [
        -0.18028904895928421,
        -0.7477757360072874,
        -0.7825636069135582,
        0.23163282792696377,
        0.9265730297136733,
        -0.21157405365236492,
        -0.453999576325617,
        0.8960446442592146
      ],
      [
        0.6270499633551112,
        0.1778842985996918,
        -0.6948021682996188,
        0.5717126663002817,
        -0.6124818340192201,
        0.07688009130683371,
        -0.3075600046288769,
        -0.7820849564656301
      ]
    ]
  },
  "bias_h": {
    "rows": 8,
    "cols": 1,
    "data": [
      [
        -0.7439617977245756
      ],
      [
        0.534318906682364
      ],
      [
        0.3475740576333348
      ],
      [
        0.16211992213044799
      ],
      [
        -0.6428572936035333
      ],
      [
        -0.6103076371901941
      ],
      [
        0.7480512044515006
      ],
      [
        -0.483869168428006
      ]
    ]
  },
  "bias_o": {
    "rows": 2,
    "cols": 1,
    "data": [
      [
        0.29953514598771624
      ],
      [
        0.3315289433745692
      ]
    ]
  },
  "learning_rate": 0.1,
  "activation_function": {}
}
